digraph Tree {
node [shape=box, style="filled, rounded", color="black", fontname=helvetica] ;
edge [fontname=helvetica] ;
0 [label="petal length (cm) <= 2.45\ngini = 0.66\nsamples = 98\nvalue = [57, 49, 44]\nclass = setosa", fillcolor="#fdf5ef"] ;
1 [label="gini = 0.0\nsamples = 37\nvalue = [57, 0, 0]\nclass = setosa", fillcolor="#e58139"] ;
0 -> 1 [labeldistance=2.5, labelangle=45, headlabel="True"] ;
2 [label="petal width (cm) <= 1.75\ngini = 0.5\nsamples = 61\nvalue = [0, 49, 44]\nclass = versicolor", fillcolor="#ebfcf2"] ;
0 -> 2 [labeldistance=2.5, labelangle=-45, headlabel="False"] ;
3 [label="petal length (cm) <= 5.35\ngini = 0.04\nsamples = 32\nvalue = [0, 49, 1]\nclass = versicolor", fillcolor="#3de684"] ;
2 -> 3 ;
4 [label="gini = 0.0\nsamples = 31\nvalue = [0, 49, 0]\nclass = versicolor", fillcolor="#39e581"] ;
3 -> 4 ;
5 [label="gini = 0.0\nsamples = 1\nvalue = [0, 0, 1]\nclass = virginica", fillcolor="#8139e5"] ;
3 -> 5 ;
6 [label="gini = 0.0\nsamples = 29\nvalue = [0, 0, 43]\nclass = virginica", fillcolor="#8139e5"] ;
2 -> 6 ;
}